34 64
34 0.016578 -0.033662 0.342163 -0.046992 0.131110 -0.269384 0.052046 0.028007 -0.144702 -0.051138 0.025385 -0.043296 -0.168460 -0.223081 0.382534 0.127475 0.020316 -0.076960 0.059757 0.156963 -0.245991 -0.154940 -0.076232 0.103258 -0.216407 -0.242197 -0.293172 0.150293 -0.063360 0.076546 -0.007345 0.015831 0.118819 -0.065298 -0.465936 -0.161224 -0.255480 -0.265108 0.004665 0.169886 0.002448 0.076210 -0.113521 -0.061928 -0.252107 0.318464 -0.207359 0.006095 -0.016232 -0.165707 -0.245191 0.106779 -0.271402 -0.108457 0.091650 0.020331 0.087218 -0.225327 0.148608 -0.067327 0.095501 -0.124048 0.054361 -0.264420
1 -0.007010 0.265884 -0.351427 0.043924 -0.042369 -0.067828 -0.097853 -0.128657 -0.061827 0.069791 -0.208588 -0.064086 0.035612 0.101045 -0.022278 0.056450 0.137569 0.014203 -0.238766 -0.025402 0.182733 0.263985 -0.211378 0.123027 0.226724 0.243282 -0.123580 -0.355084 -0.058364 0.193447 -0.305292 0.058621 0.357832 0.184949 -0.064007 -0.002382 0.122312 0.163122 -0.172138 -0.123923 0.352019 0.158075 -0.140699 0.294083 -0.010576 0.242572 0.164566 -0.169316 -0.102211 -0.037826 -0.304413 0.111541 -0.024165 0.023679 0.058810 -0.320133 -0.065486 -0.069631 -0.045267 0.029870 -0.129460 0.097834 0.172108 0.178046
33 0.137295 0.125906 0.310508 -0.222307 -0.040892 -0.174372 -0.085581 0.049705 -0.040421 -0.062007 -0.041505 -0.022255 -0.171291 -0.314912 0.579077 -0.044863 -0.106625 -0.185373 0.137394 0.025799 -0.187592 -0.105835 -0.012276 0.040176 -0.202430 -0.042704 -0.348877 0.130272 -0.074971 0.039041 0.066631 -0.138972 0.148276 -0.088794 -0.450050 -0.182939 -0.178470 -0.226595 0.000898 0.269516 -0.000689 -0.004034 0.003668 -0.340864 -0.240441 0.410141 -0.173865 -0.011992 -0.154262 -0.041423 -0.160428 0.048489 -0.188942 0.012852 0.026560 0.312578 0.218698 -0.374367 0.291696 0.046317 -0.042829 -0.163026 0.192944 -0.236678
3 -0.008529 -0.049614 0.156561 0.281220 0.073257 -0.309799 0.220794 -0.085705 0.192162 0.008154 0.201603 0.041424 -0.076465 -0.098490 -0.199184 -0.058778 0.051525 -0.072659 -0.054174 0.261462 -0.073342 -0.328957 -0.218457 0.215017 -0.096591 -0.190456 -0.128142 -0.048742 -0.108741 0.137637 -0.000130 0.216712 -0.019994 0.038755 -0.120674 0.096382 -0.158165 -0.086361 -0.134047 -0.119256 0.191629 0.100936 -0.123507 0.305367 -0.092582 -0.034519 -0.049118 0.115225 0.021564 -0.111745 -0.225403 -0.085473 -0.084377 -0.173903 0.060918 -0.281605 -0.180826 0.069332 -0.195270 0.049872 0.060744 0.193004 -0.025572 -0.091122
2 -0.145232 0.319873 0.085532 0.182201 0.050525 -0.367929 0.209920 -0.187558 0.005556 0.137624 -0.225792 -0.035204 0.068485 -0.103164 -0.112858 -0.070386 0.246978 -0.007401 -0.123070 -0.126314 -0.112484 -0.044529 -0.420589 0.203463 0.004755 0.017712 -0.271795 -0.369205 -0.046946 0.202944 -0.241604 0.113522 0.375951 0.104074 -0.311383 0.115504 0.058444 0.025037 -0.058903 -0.193921 0.476232 0.050618 -0.347620 0.254086 -0.217965 0.415502 -0.106803 -0.304396 0.081543 0.054022 -0.323521 0.094057 0.095936 -0.033965 0.113991 -0.229082 -0.226628 -0.181925 -0.316250 0.041744 0.067760 0.104984 0.211697 -0.079501
4 0.058027 0.376583 0.058182 0.249096 -0.050227 -0.225171 0.120122 0.042627 0.147291 0.068324 -0.209616 0.065601 0.119061 -0.064238 -0.093138 -0.160473 0.186429 -0.020043 -0.299485 -0.000692 -0.132082 -0.207875 -0.529156 0.141877 -0.084678 0.103418 -0.038026 -0.515550 -0.109631 0.222061 -0.245950 0.200045 0.273826 0.145074 -0.217307 0.288244 0.074421 0.153370 -0.068434 -0.269168 0.356148 0.023109 -0.255715 0.265023 -0.253388 0.280859 -0.029111 -0.200692 0.058062 0.078909 -0.207144 0.048770 0.092736 -0.003498 0.054724 -0.268862 -0.007991 0.092959 -0.371780 0.129776 0.054476 0.316022 0.173425 0.017233
32 -0.239354 -0.271702 0.240704 0.130876 -0.110439 -0.408530 0.272852 -0.042992 0.187829 0.014969 0.433970 0.036468 -0.243847 0.012764 -0.230456 0.050378 0.080556 -0.000382 0.472347 0.037720 -0.067135 -0.045997 0.201070 0.229211 0.008496 0.050254 -0.304769 0.333282 -0.281846 -0.004593 -0.119590 -0.073872 -0.134597 -0.003657 0.156174 0.009872 -0.134584 0.044851 -0.217142 0.295070 0.084613 -0.019160 -0.006240 0.069315 -0.219557 -0.230119 0.087770 0.200260 0.007110 -0.077623 -0.133520 -0.233400 -0.004123 -0.118933 -0.186118 -0.101107 -0.124309 -0.293769 -0.010194 0.167860 -0.093089 -0.107702 0.069314 -0.075002
24 -0.007421 -0.261391 0.210775 -0.074866 -0.057491 -0.124057 -0.021458 0.018190 -0.152384 -0.037798 0.382245 0.029384 -0.150951 -0.130399 0.453732 0.441172 -0.072562 0.005185 0.173461 -0.046265 -0.199167 -0.109669 0.324595 -0.016089 -0.005145 -0.011151 -0.137022 0.437997 -0.299886 -0.027312 -0.038370 -0.161363 -0.220419 -0.006881 -0.161546 -0.265591 -0.249259 -0.094767 -0.075180 0.414986 0.036269 0.088190 0.023280 -0.295420 -0.394190 -0.078048 -0.136562 0.176151 -0.061044 0.035050 0.042792 0.105399 -0.144598 0.068368 -0.134309 0.083177 0.061537 -0.396422 0.325782 0.198088 -0.037510 -0.166459 -0.115061 -0.139102
14 0.030228 0.129060 0.110500 0.190313 0.109449 -0.122662 0.305129 0.016624 0.190086 0.078093 -0.142652 -0.005194 0.075750 0.026324 -0.292947 -0.159160 0.119665 -0.114051 -0.043063 0.046409 -0.055974 -0.269564 -0.273699 0.079467 0.072576 -0.078251 -0.100688 -0.198423 -0.082627 0.212886 -0.216260 0.115548 0.172701 0.042536 -0.138195 0.241313 0.017470 0.192669 -0.100348 -0.277456 0.095950 0.007090 -0.123355 0.152274 -0.068471 0.017875 0.004306 -0.069996 0.115026 0.006002 -0.042945 -0.064495 0.006279 -0.004632 0.053731 -0.110590 -0.026431 0.094023 -0.234211 0.063250 0.039411 0.158217 0.101213 -0.014968
9 0.058277 0.115768 0.205272 -0.142558 0.003596 -0.234835 0.063421 0.014633 0.233672 0.061710 -0.000495 0.004172 -0.095958 -0.189341 -0.030370 -0.290801 -0.031029 -0.120903 0.140558 -0.019063 0.000356 -0.165825 -0.071360 0.147151 -0.021871 -0.083773 -0.267263 -0.051654 0.072240 0.150564 0.030300 0.027389 0.170293 -0.132423 -0.146461 0.093346 -0.007366 -0.156669 -0.036338 0.003069 0.054084 0.055830 0.065432 -0.007940 -0.068904 0.127592 0.070946 -0.037977 -0.158688 -0.025038 -0.151289 -0.234038 -0.081288 -0.088781 -0.050241 0.126102 -0.086744 -0.183787 -0.080603 -0.011720 -0.053806 -0.001256 0.156040 -0.083036
7 -0.338525 0.289379 -0.612331 -0.056433 -0.226119 0.009797 -0.626927 -0.242609 -0.313271 -0.162443 -0.372888 -0.014552 0.004456 0.073615 0.159824 -0.179481 0.140971 0.248053 -0.234110 -0.003825 0.376676 0.953675 -0.250074 0.163877 -0.176908 0.432388 0.042111 -0.483338 0.422836 -0.314988 0.249399 0.112804 0.287673 0.215164 0.280037 -0.047836 0.260255 -0.283888 0.003268 0.014394 0.278692 -0.203188 -0.108591 0.365850 0.401939 0.516174 0.242660 -0.188965 -0.206849 -0.163782 -0.377735 0.117460 0.284139 -0.174765 0.095907 -0.377084 -0.052443 0.104936 -0.055436 -0.412315 -0.051116 0.029361 0.293029 0.136702
6 -0.423981 0.144075 -0.694290 0.067430 -0.237255 -0.020805 -0.489473 -0.276127 -0.145971 -0.172751 -0.243644 0.006368 -0.024538 0.169714 -0.062305 -0.246205 0.144839 0.209917 -0.017048 0.114863 0.450726 1.001299 -0.168625 0.278588 -0.121238 0.545835 0.013128 -0.399890 0.295549 -0.372475 0.228046 0.105463 0.171700 0.283951 0.458207 -0.005027 0.321162 -0.153535 -0.122988 0.027036 0.244779 -0.292601 -0.057333 0.423413 0.541791 0.316033 0.361517 -0.027071 -0.192728 -0.238897 -0.364928 -0.024614 0.358572 -0.170100 0.025196 -0.434076 -0.015192 0.168212 -0.080853 -0.335808 -0.103094 0.066950 0.338883 0.169351
28 -0.015850 -0.318003 0.256105 0.168283 -0.006479 -0.091121 0.266600 0.114339 0.151598 -0.076545 0.385376 0.014661 -0.098142 -0.070467 0.142967 0.132254 -0.046751 -0.212898 0.374321 0.256082 -0.116754 -0.175389 0.188676 0.127027 -0.013989 0.054386 -0.280627 0.461823 -0.473286 0.004460 -0.122003 -0.206288 -0.236047 0.066080 -0.113397 -0.044580 -0.251666 0.145912 -0.237503 0.238214 -0.119310 -0.014762 -0.016373 -0.157067 -0.186902 -0.197138 -0.048076 0.333008 0.061274 -0.081710 0.020523 -0.055832 -0.092797 0.133853 -0.070131 0.041014 0.286292 -0.147346 0.224017 0.274985 -0.034497 0.006680 0.036451 -0.041318
30 0.069751 -0.164494 0.449177 -0.344633 0.002134 -0.215383 -0.083754 0.232807 -0.128534 -0.045085 0.201023 -0.045446 -0.286291 -0.217491 0.547082 0.185490 -0.077744 -0.046596 0.276039 0.019864 -0.221353 -0.118761 0.248203 0.072373 -0.104142 -0.152942 -0.354952 0.440239 -0.115648 0.105673 -0.063856 -0.142314 0.084876 -0.200515 -0.342567 -0.145704 -0.332709 -0.252669 -0.027603 0.467830 -0.211950 0.162616 0.110524 -0.254902 -0.411219 0.128103 -0.027572 0.091134 -0.157590 -0.143142 -0.152990 -0.051006 -0.397510 -0.062190 -0.122680 0.167717 0.179504 -0.430728 0.303887 -0.043009 -0.039988 -0.270290 0.035732 -0.173071
31 0.326078 0.148648 0.217217 -0.134718 0.227646 -0.071771 0.099217 0.007550 0.121327 0.102972 -0.098929 -0.066513 -0.075435 -0.197759 0.083293 -0.143816 -0.075579 -0.164065 -0.164500 0.179856 -0.026858 -0.419026 -0.133857 0.005328 -0.019593 -0.408686 -0.157024 -0.055535 0.149792 0.279931 0.010270 0.120460 0.198233 -0.168147 -0.435258 -0.059161 -0.117250 -0.172751 0.072751 -0.192833 -0.017519 0.246133 0.045070 0.032153 0.014165 0.188830 -0.119098 -0.054625 -0.096971 -0.075560 -0.147511 -0.073788 -0.350834 -0.055396 0.139256 0.129542 -0.087609 -0.019010 0.039531 -0.076015 0.039252 0.040878 -0.000640 -0.085220
8 -0.026089 0.230009 -0.016030 0.336448 0.096823 -0.178685 0.301050 -0.110725 0.208191 0.090607 -0.182548 -0.009632 0.105370 0.006633 -0.346756 -0.202721 0.184425 -0.109658 -0.144382 0.106201 0.003059 -0.185477 -0.419891 0.159762 0.030741 -0.009480 -0.109951 -0.391084 -0.085424 0.202509 -0.214115 0.171160 0.212851 0.144766 -0.156629 0.212394 0.083344 0.186737 -0.129022 -0.383557 0.319930 0.002341 -0.263706 0.321169 0.007292 0.161866 -0.037786 -0.120017 0.128153 0.011427 -0.168870 -0.007182 0.087237 -0.017819 0.135708 -0.247665 -0.099076 0.134916 -0.308501 0.085563 0.065759 0.265133 0.165500 0.014178
5 -0.394502 0.164038 -0.647540 0.065383 -0.209340 -0.081528 -0.302668 -0.272923 -0.054873 -0.054513 -0.185098 -0.006006 0.007116 0.223702 -0.277229 -0.160889 0.184870 0.221583 0.005514 -0.093546 0.398736 0.818915 -0.117398 0.204746 0.116221 0.518097 0.036427 -0.419360 0.195406 -0.219394 0.019140 0.120461 0.192311 0.262094 0.502805 0.056879 0.384981 -0.019221 -0.167193 -0.017461 0.304530 -0.201872 -0.009641 0.382357 0.365906 0.166919 0.411970 -0.097906 -0.167035 -0.091120 -0.279378 -0.077658 0.362479 -0.149945 -0.056267 -0.372681 -0.186921 0.062315 -0.164110 -0.189174 -0.165087 0.020763 0.253891 0.184872
11 -0.353317 0.284829 -0.537021 -0.087757 -0.187433 -0.152876 -0.417935 -0.267603 -0.193454 0.000562 -0.287232 -0.050067 0.005129 0.140840 -0.165716 -0.103796 0.204996 0.297444 -0.175774 -0.288655 0.337867 0.739647 -0.168141 0.111822 0.097000 0.348659 0.072358 -0.501551 0.388379 -0.145141 0.008005 0.181213 0.322918 0.157629 0.388795 0.076450 0.330146 -0.185389 -0.028706 -0.007414 0.356287 -0.055907 -0.020480 0.407067 0.184093 0.276047 0.363155 -0.267895 -0.196402 -0.010678 -0.321543 -0.020385 0.273793 -0.228013 -0.062934 -0.382294 -0.358164 -0.009074 -0.210664 -0.310081 -0.148054 -0.044227 0.183923 0.129261
26 -0.228076 -0.513440 0.239330 0.380081 -0.180726 -0.175606 0.253402 0.069151 0.002797 -0.160556 0.687320 0.073332 -0.202304 0.002781 0.219724 0.388806 0.005358 -0.134149 0.522933 0.331075 -0.162213 0.002635 0.330542 0.241329 -0.077842 0.262977 -0.358311 0.687882 -0.757833 -0.102601 -0.159536 -0.318465 -0.406932 0.174471 0.029026 -0.172401 -0.424280 0.283538 -0.351171 0.497653 0.039240 -0.063539 -0.191340 -0.093961 -0.325541 -0.269255 -0.119480 0.443139 0.142399 -0.134522 -0.054520 0.085806 -0.049980 0.156008 -0.082151 -0.197010 0.327254 -0.308993 0.314010 0.410339 -0.027904 -0.035196 0.021811 0.018189
25 -0.328716 -0.457755 0.063021 0.433841 -0.232837 -0.219889 0.214605 -0.099489 -0.051950 -0.099807 0.670843 0.095910 -0.161847 0.081357 0.118171 0.509106 0.080419 -0.006866 0.435859 0.154662 -0.125747 0.091816 0.319990 0.223046 0.023772 0.346417 -0.259792 0.550898 -0.733126 -0.133013 -0.174719 -0.249017 -0.406396 0.243749 0.155068 -0.212713 -0.321844 0.299880 -0.367484 0.460989 0.257181 -0.069346 -0.243596 -0.054365 -0.356194 -0.279792 -0.102352 0.347068 0.144805 -0.047746 -0.026187 0.162579 0.100550 0.137821 -0.123151 -0.283708 0.120472 -0.366923 0.235329 0.445890 -0.041286 -0.034787 0.001443 0.033712
20 0.057098 0.237949 0.105151 -0.023845 0.085226 -0.088143 0.130683 0.012992 0.035148 0.127990 -0.188580 -0.008126 0.041624 -0.011515 -0.191392 -0.074759 0.094246 0.051696 -0.175372 -0.173992 -0.029016 -0.191114 -0.188448 -0.080154 0.074505 -0.180073 0.015558 -0.219321 0.114828 0.176333 -0.142491 0.126218 0.171584 -0.075546 -0.119209 0.107065 0.057279 0.012035 0.065614 -0.182502 0.086355 0.078491 -0.034914 0.067865 -0.131675 0.130527 -0.010270 -0.225526 0.065744 0.103864 -0.024880 -0.010250 -0.059088 -0.022445 0.041883 0.031402 -0.194117 0.008562 -0.172737 -0.023111 0.031135 0.012597 -0.008015 -0.034846
29 -0.022254 -0.041921 0.245343 0.182310 -0.089645 -0.161402 0.278457 0.017897 0.371754 -0.071600 0.191913 0.108728 -0.079003 -0.086087 -0.126807 -0.297639 -0.042759 -0.258944 0.358146 0.243722 -0.049676 -0.192281 -0.073375 0.234201 -0.128594 0.116720 -0.348124 0.169071 -0.294520 0.028602 0.086272 -0.130798 -0.078644 0.010168 -0.044920 0.131795 -0.150451 0.146771 -0.189972 0.042775 0.026098 -0.187680 -0.047806 -0.084239 -0.026384 -0.042640 -0.025370 0.219998 0.031671 -0.083259 -0.045096 -0.156294 0.065133 0.050274 -0.017505 0.096601 0.189816 -0.105322 -0.017201 0.213747 -0.036051 0.104426 0.226535 -0.051407
17 -0.274204 0.255269 -0.897903 0.000996 -0.129525 0.287216 -0.683460 -0.354975 -0.315441 -0.204271 -0.492468 -0.070543 0.131719 0.132675 0.148976 -0.224762 0.045681 0.152564 -0.314265 0.167131 0.534393 1.091451 -0.236509 0.102289 -0.119201 0.494930 0.177167 -0.552793 0.485684 -0.440528 0.376770 0.096344 0.223689 0.326996 0.322094 -0.139029 0.422924 -0.236948 0.012657 -0.151764 0.208757 -0.276610 -0.081709 0.337571 0.798721 0.486107 0.212777 -0.100008 -0.219966 -0.191270 -0.271770 0.182069 0.383092 -0.084922 0.203868 -0.303111 0.069570 0.356656 0.040288 -0.440985 -0.060870 0.099450 0.274999 0.188769
19 0.145384 -0.034278 0.482543 -0.381080 0.007148 -0.288211 -0.035947 0.128800 0.066584 0.007757 0.132293 -0.008958 -0.276630 -0.284779 0.327547 -0.073340 -0.124500 -0.083504 0.227366 -0.060397 -0.204131 -0.293431 0.143867 0.064643 -0.150910 -0.264314 -0.317009 0.281595 0.090024 0.127284 0.102744 -0.042750 0.108137 -0.286754 -0.301607 -0.047333 -0.235289 -0.357082 0.072815 0.304319 -0.137491 0.120836 0.194419 -0.245927 -0.315829 0.105883 -0.037443 0.040777 -0.208448 -0.066094 -0.120520 -0.201623 -0.315242 -0.151736 -0.125332 0.298419 -0.040028 -0.390841 0.137370 -0.083818 -0.056454 -0.232038 0.029549 -0.245572
15 0.131505 0.018058 0.523669 -0.389795 -0.017583 -0.343651 -0.042582 0.137671 0.095484 0.008784 0.129874 -0.004623 -0.282714 -0.327464 0.342464 -0.129032 -0.109227 -0.088190 0.252305 -0.068261 -0.204315 -0.277564 0.090512 0.106407 -0.170531 -0.241912 -0.391185 0.251008 0.073351 0.150534 0.102297 -0.045578 0.153539 -0.287185 -0.346668 -0.022847 -0.249961 -0.376263 0.043838 0.332169 -0.114232 0.121642 0.174093 -0.233710 -0.362456 0.167160 -0.023872 0.021848 -0.235855 -0.072929 -0.186986 -0.220499 -0.315310 -0.159486 -0.128891 0.287597 -0.037451 -0.445551 0.105840 -0.079489 -0.060274 -0.223387 0.085883 -0.256691
22 -0.069104 0.352326 -0.142079 0.189058 0.051014 -0.127591 0.131897 -0.129856 -0.004324 0.152460 -0.286567 -0.018456 0.145761 0.072573 -0.345403 -0.044670 0.232437 0.119059 -0.312811 -0.206291 0.050338 -0.010427 -0.353620 -0.004199 0.156551 0.002885 0.082724 -0.499708 0.069981 0.162406 -0.268958 0.213739 0.254140 0.102607 -0.023208 0.136797 0.200927 0.130074 -0.007016 -0.323884 0.358280 0.051136 -0.205692 0.292468 -0.075219 0.219308 0.027531 -0.337315 0.122401 0.133814 -0.129791 0.090127 0.121233 -0.027730 0.100959 -0.215454 -0.293353 0.078195 -0.318942 0.013918 0.039418 0.137592 0.064391 0.048609
18 -0.045126 0.358770 -0.154863 0.153046 0.070026 -0.080297 0.111019 -0.123528 0.000096 0.153019 -0.319346 -0.026965 0.153573 0.076917 -0.353121 -0.102714 0.208137 0.099531 -0.321381 -0.185413 0.070129 -0.007577 -0.364329 -0.036904 0.137638 -0.031568 0.100601 -0.507482 0.134496 0.147404 -0.204401 0.207312 0.259146 0.071504 -0.015103 0.151915 0.219447 0.106535 0.028944 -0.363902 0.301162 0.043149 -0.173875 0.281228 -0.003637 0.211081 0.031307 -0.334748 0.110418 0.132697 -0.096973 0.069801 0.109770 -0.034483 0.105558 -0.178385 -0.278025 0.138308 -0.318621 -0.027772 0.044209 0.131248 0.056670 0.053947
23 0.137929 -0.061781 0.502459 -0.398028 0.019088 -0.308490 -0.056043 0.121857 0.080486 0.012551 0.162105 -0.022749 -0.313934 -0.314742 0.349791 -0.085212 -0.139708 -0.084064 0.256399 -0.018541 -0.188336 -0.282085 0.155598 0.093174 -0.162871 -0.285849 -0.349419 0.310998 0.095290 0.118350 0.128102 -0.039189 0.098634 -0.289562 -0.321416 -0.071924 -0.263716 -0.397063 0.058529 0.332068 -0.154744 0.139004 0.198903 -0.244331 -0.300962 0.113732 -0.035543 0.066714 -0.236478 -0.107708 -0.159462 -0.230879 -0.344342 -0.165734 -0.113693 0.282375 -0.041109 -0.418432 0.157986 -0.105197 -0.054147 -0.244775 0.039367 -0.252816
13 -0.166512 0.261526 -0.120919 0.317340 0.028568 -0.287058 0.254478 -0.146805 0.138996 0.136482 -0.211315 -0.013374 0.102492 0.144726 -0.551448 -0.137984 0.297507 0.074303 -0.157286 -0.111444 0.033477 -0.020438 -0.414950 0.163975 0.142586 0.084757 -0.020994 -0.504353 -0.004425 0.203561 -0.331662 0.274640 0.305887 0.151681 0.075894 0.321787 0.198414 0.220421 -0.140056 -0.353131 0.406099 0.014572 -0.249092 0.469184 -0.053404 0.082175 0.140125 -0.248094 0.110203 0.045877 -0.206492 -0.057990 0.183784 -0.125530 0.032738 -0.424139 -0.310968 0.106208 -0.484273 0.010717 0.015888 0.218054 0.143431 0.070159
16 0.138902 -0.056119 0.485135 -0.327341 0.005358 -0.295631 -0.011461 0.120853 0.117128 -0.003223 0.168775 -0.000242 -0.278654 -0.282881 0.299117 -0.117001 -0.129394 -0.114113 0.264160 0.023975 -0.178396 -0.289607 0.138105 0.104288 -0.164581 -0.251468 -0.354156 0.294952 0.059397 0.129258 0.123008 -0.056313 0.085652 -0.267326 -0.301475 -0.032087 -0.256728 -0.334529 0.026978 0.299499 -0.150974 0.118541 0.178699 -0.210146 -0.266775 0.088297 -0.037486 0.083673 -0.214981 -0.103201 -0.144158 -0.226265 -0.306318 -0.142678 -0.114812 0.255299 -0.006872 -0.371638 0.132033 -0.069795 -0.046929 -0.191411 0.060286 -0.220880
10 0.201533 0.103581 0.377317 -0.001248 0.114489 -0.123946 0.269254 0.091241 0.344758 -0.000222 -0.045586 0.036391 -0.017219 -0.222580 -0.001325 -0.363592 -0.091644 -0.310155 0.113749 0.192648 -0.156228 -0.458824 -0.221596 0.098890 -0.153026 -0.188829 -0.277288 0.006676 -0.069770 0.173940 0.098602 -0.007733 0.077068 -0.109298 -0.354922 0.153829 -0.109790 -0.043553 -0.025382 -0.127629 -0.105011 -0.052632 0.010375 -0.142247 -0.045498 0.118496 -0.131717 0.076905 0.001199 -0.055377 -0.026447 -0.147242 -0.097704 0.017800 0.061239 0.265281 0.172498 -0.007576 -0.054137 0.071899 0.051396 0.101869 0.144058 -0.172485
21 0.142920 -0.040155 0.448295 -0.368932 0.007183 -0.249882 -0.067688 0.116825 0.038455 -0.003651 0.144775 0.000746 -0.264830 -0.278459 0.376084 -0.051069 -0.132187 -0.082502 0.226221 -0.019886 -0.182158 -0.239322 0.146967 0.071051 -0.167191 -0.236808 -0.307074 0.290638 0.063302 0.099037 0.122448 -0.071062 0.079291 -0.258138 -0.317111 -0.083194 -0.232959 -0.346183 0.063769 0.319530 -0.146591 0.115155 0.179923 -0.260407 -0.279313 0.124612 -0.046982 0.054630 -0.205290 -0.093646 -0.132478 -0.164937 -0.310793 -0.121834 -0.101253 0.282896 0.018280 -0.375496 0.176522 -0.070081 -0.040511 -0.214969 0.043877 -0.232311
27 0.237810 -0.060236 0.384976 -0.379404 0.062358 -0.020712 -0.133060 0.234451 -0.216871 0.007732 0.078655 -0.023010 -0.129552 -0.199763 0.566063 0.287121 -0.142599 0.005647 -0.019233 -0.174509 -0.303913 -0.273857 0.208878 -0.186616 -0.059148 -0.257938 -0.037775 0.307194 -0.002619 0.112498 -0.024898 -0.083076 0.016132 -0.222289 -0.359299 -0.161072 -0.234771 -0.235111 0.168521 0.323721 -0.233340 0.195203 0.154563 -0.382772 -0.433257 0.068389 -0.157980 -0.034632 -0.094159 0.053466 0.065755 0.084425 -0.342401 0.008935 -0.090021 0.302850 0.104226 -0.313772 0.275259 -0.007170 0.007689 -0.255290 -0.164040 -0.203796
12 -0.182647 0.142820 -0.249056 0.042648 -0.079323 -0.041380 -0.037648 -0.093239 0.015210 0.067680 -0.135365 0.005752 0.080269 0.169152 -0.377210 -0.116176 0.139906 0.183264 -0.066291 -0.208326 0.157229 0.255753 -0.097569 0.007434 0.133245 0.166222 0.138567 -0.303173 0.158597 -0.033865 -0.076069 0.118702 0.116101 0.062495 0.326688 0.142760 0.254494 0.066350 -0.009572 -0.119967 0.132840 -0.051072 0.003051 0.236159 0.100963 -0.018762 0.215416 -0.177003 0.022143 0.073410 -0.043548 -0.066884 0.206890 -0.078096 -0.055124 -0.177221 -0.242554 0.106765 -0.262206 -0.085618 -0.056163 0.019415 0.044809 0.116859
